digraph Tree {
node [shape=box, fontname="helvetica"] ;
edge [fontname="helvetica"] ;
0 [label="male <= 0.5\nentropy = 0.924\nsamples = 984\nvalue = [650, 334]"] ;
1 [label="pclass=3rd <= 0.5\nentropy = 0.91\nsamples = 341\nvalue = [111.0, 230.0]"] ;
0 -> 1 [labeldistance=2.5, labelangle=45, headlabel="True"] ;
2 [label="age <= 57.5\nentropy = 0.414\nsamples = 180\nvalue = [15, 165]"] ;
1 -> 2 ;
3 [label="age <= 56.5\nentropy = 0.429\nsamples = 171\nvalue = [15, 156]"] ;
2 -> 3 ;
4 [label="age <= 31.597\nentropy = 0.41\nsamples = 170\nvalue = [14, 156]"] ;
3 -> 4 ;
5 [label="entropy = 0.475\nsamples = 108\nvalue = [11, 97]"] ;
4 -> 5 ;
6 [label="entropy = 0.28\nsamples = 62\nvalue = [3, 59]"] ;
4 -> 6 ;
7 [label="entropy = 0.0\nsamples = 1\nvalue = [1, 0]"] ;
3 -> 7 ;
8 [label="entropy = 0.0\nsamples = 9\nvalue = [0, 9]"] ;
2 -> 8 ;
9 [label="age <= 25.5\nentropy = 0.973\nsamples = 161\nvalue = [96, 65]"] ;
1 -> 9 ;
10 [label="age <= 13.0\nentropy = 0.987\nsamples = 30\nvalue = [13, 17]"] ;
9 -> 10 ;
11 [label="age <= 5.5\nentropy = 0.971\nsamples = 10\nvalue = [6, 4]"] ;
10 -> 11 ;
12 [label="entropy = 0.722\nsamples = 5\nvalue = [1, 4]"] ;
11 -> 12 ;
13 [label="entropy = 0.0\nsamples = 5\nvalue = [5, 0]"] ;
11 -> 13 ;
14 [label="age <= 19.0\nentropy = 0.934\nsamples = 20\nvalue = [7, 13]"] ;
10 -> 14 ;
15 [label="entropy = 0.811\nsamples = 12\nvalue = [3, 9]"] ;
14 -> 15 ;
16 [label="entropy = 1.0\nsamples = 8\nvalue = [4, 4]"] ;
14 -> 16 ;
17 [label="age <= 44.0\nentropy = 0.948\nsamples = 131\nvalue = [83.0, 48.0]"] ;
9 -> 17 ;
18 [label="age <= 38.5\nentropy = 0.944\nsamples = 130\nvalue = [83, 47]"] ;
17 -> 18 ;
19 [label="entropy = 0.951\nsamples = 127\nvalue = [80, 47]"] ;
18 -> 19 ;
20 [label="entropy = 0.0\nsamples = 3\nvalue = [3, 0]"] ;
18 -> 20 ;
21 [label="entropy = 0.0\nsamples = 1\nvalue = [0, 1]"] ;
17 -> 21 ;
22 [label="pclass=1st <= 0.5\nentropy = 0.638\nsamples = 643\nvalue = [539, 104]"] ;
0 -> 22 [labeldistance=2.5, labelangle=-45, headlabel="False"] ;
23 [label="age <= 3.5\nentropy = 0.507\nsamples = 508\nvalue = [451, 57]"] ;
22 -> 23 ;
24 [label="age <= 0.667\nentropy = 0.544\nsamples = 8\nvalue = [1, 7]"] ;
23 -> 24 ;
25 [label="entropy = 0.0\nsamples = 1\nvalue = [1, 0]"] ;
24 -> 25 ;
26 [label="entropy = 0.0\nsamples = 7\nvalue = [0, 7]"] ;
24 -> 26 ;
27 [label="age <= 10.0\nentropy = 0.469\nsamples = 500\nvalue = [450, 50]"] ;
23 -> 27 ;
28 [label="pclass=2nd <= 0.5\nentropy = 0.954\nsamples = 8\nvalue = [5, 3]"] ;
27 -> 28 ;
29 [label="entropy = 0.65\nsamples = 6\nvalue = [5, 1]"] ;
28 -> 29 ;
30 [label="entropy = 0.0\nsamples = 2\nvalue = [0, 2]"] ;
28 -> 30 ;
31 [label="age <= 18.5\nentropy = 0.455\nsamples = 492\nvalue = [445, 47]"] ;
27 -> 31 ;
32 [label="entropy = 0.0\nsamples = 18\nvalue = [18, 0]"] ;
31 -> 32 ;
33 [label="entropy = 0.466\nsamples = 474\nvalue = [427, 47]"] ;
31 -> 33 ;
34 [label="age <= 53.0\nentropy = 0.932\nsamples = 135\nvalue = [88, 47]"] ;
22 -> 34 ;
35 [label="age <= 17.5\nentropy = 0.976\nsamples = 115\nvalue = [68, 47]"] ;
34 -> 35 ;
36 [label="entropy = 0.0\nsamples = 6\nvalue = [0, 6]"] ;
35 -> 36 ;
37 [label="age <= 47.5\nentropy = 0.955\nsamples = 109\nvalue = [68, 41]"] ;
35 -> 37 ;
38 [label="entropy = 0.928\nsamples = 99\nvalue = [65, 34]"] ;
37 -> 38 ;
39 [label="entropy = 0.881\nsamples = 10\nvalue = [3, 7]"] ;
37 -> 39 ;
40 [label="entropy = 0.0\nsamples = 20\nvalue = [20, 0]"] ;
34 -> 40 ;
}